digraph Tree {
node [shape=box, fontname="helvetica"] ;
edge [fontname="helvetica"] ;
0 [label="X[5] <= 0.085\ngini = 0.73\nsamples = 584\nvalue = [142, 88, 206, 148]"] ;
1 [label="X[5] <= 0.055\ngini = 0.666\nsamples = 325\nvalue = [131, 83, 106, 5]"] ;
0 -> 1 [labeldistance=2.5, labelangle=45, headlabel="True"] ;
2 [label="X[5] <= 0.045\ngini = 0.463\nsamples = 133\nvalue = [90, 37, 1, 5]"] ;
1 -> 2 ;
3 [label="X[9] <= 1.5\ngini = 0.153\nsamples = 48\nvalue = [44, 0, 0, 4]"] ;
2 -> 3 ;
4 [label="gini = 0.0\nsamples = 1\nvalue = [0, 0, 0, 1]"] ;
3 -> 4 ;
5 [label="X[6] <= 33.5\ngini = 0.12\nsamples = 47\nvalue = [44, 0, 0, 3]"] ;
3 -> 5 ;
6 [label="gini = 0.32\nsamples = 15\nvalue = [12, 0, 0, 3]"] ;
5 -> 6 ;
7 [label="gini = 0.0\nsamples = 32\nvalue = [32, 0, 0, 0]"] ;
5 -> 7 ;
8 [label="X[0] <= 503.0\ngini = 0.517\nsamples = 85\nvalue = [46, 37, 1, 1]"] ;
2 -> 8 ;
9 [label="X[7] <= 1.45\ngini = 0.432\nsamples = 55\nvalue = [39, 14, 1, 1]"] ;
8 -> 9 ;
10 [label="gini = 0.536\nsamples = 26\nvalue = [12, 13, 1, 0]"] ;
9 -> 10 ;
11 [label="gini = 0.131\nsamples = 29\nvalue = [27, 1, 0, 1]"] ;
9 -> 11 ;
12 [label="X[2] <= 264.5\ngini = 0.358\nsamples = 30\nvalue = [7, 23, 0, 0]"] ;
8 -> 12 ;
13 [label="gini = 0.293\nsamples = 28\nvalue = [5, 23, 0, 0]"] ;
12 -> 13 ;
14 [label="gini = 0.0\nsamples = 2\nvalue = [2, 0, 0, 0]"] ;
12 -> 14 ;
15 [label="X[0] <= 552.5\ngini = 0.598\nsamples = 192\nvalue = [41, 46, 105, 0]"] ;
1 -> 15 ;
16 [label="X[8] <= 2868.0\ngini = 0.573\nsamples = 169\nvalue = [26, 46, 97, 0]"] ;
15 -> 16 ;
17 [label="X[0] <= 18.0\ngini = 0.538\nsamples = 153\nvalue = [22, 36, 95, 0]"] ;
16 -> 17 ;
18 [label="gini = 0.5\nsamples = 6\nvalue = [3, 3, 0, 0]"] ;
17 -> 18 ;
19 [label="gini = 0.515\nsamples = 147\nvalue = [19, 33, 95, 0]"] ;
17 -> 19 ;
20 [label="X[0] <= 131.0\ngini = 0.531\nsamples = 16\nvalue = [4, 10, 2, 0]"] ;
16 -> 20 ;
21 [label="gini = 0.375\nsamples = 4\nvalue = [3, 0, 1, 0]"] ;
20 -> 21 ;
22 [label="gini = 0.292\nsamples = 12\nvalue = [1, 10, 1, 0]"] ;
20 -> 22 ;
23 [label="X[0] <= 612.0\ngini = 0.454\nsamples = 23\nvalue = [15, 0, 8, 0]"] ;
15 -> 23 ;
24 [label="X[6] <= 31.8\ngini = 0.305\nsamples = 16\nvalue = [13, 0, 3, 0]"] ;
23 -> 24 ;
25 [label="gini = 0.49\nsamples = 7\nvalue = [4, 0, 3, 0]"] ;
24 -> 25 ;
26 [label="gini = 0.0\nsamples = 9\nvalue = [9, 0, 0, 0]"] ;
24 -> 26 ;
27 [label="X[0] <= 632.0\ngini = 0.408\nsamples = 7\nvalue = [2, 0, 5, 0]"] ;
23 -> 27 ;
28 [label="gini = 0.0\nsamples = 5\nvalue = [0, 0, 5, 0]"] ;
27 -> 28 ;
29 [label="gini = 0.0\nsamples = 2\nvalue = [2, 0, 0, 0]"] ;
27 -> 29 ;
30 [label="X[5] <= 0.11\ngini = 0.544\nsamples = 259\nvalue = [11, 5, 100, 143]"] ;
0 -> 30 [labeldistance=2.5, labelangle=-45, headlabel="False"] ;
31 [label="X[9] <= 4.5\ngini = 0.555\nsamples = 189\nvalue = [7, 5, 97, 80]"] ;
30 -> 31 ;
32 [label="X[8] <= 1745.5\ngini = 0.565\nsamples = 154\nvalue = [6, 5, 67, 76]"] ;
31 -> 32 ;
33 [label="X[0] <= 37.0\ngini = 0.459\nsamples = 112\nvalue = [0, 0, 40, 72]"] ;
32 -> 33 ;
34 [label="gini = 0.198\nsamples = 9\nvalue = [0, 0, 8, 1]"] ;
33 -> 34 ;
35 [label="gini = 0.428\nsamples = 103\nvalue = [0, 0, 32, 71]"] ;
33 -> 35 ;
36 [label="X[8] <= 2630.5\ngini = 0.543\nsamples = 42\nvalue = [6, 5, 27, 4]"] ;
32 -> 36 ;
37 [label="gini = 0.253\nsamples = 28\nvalue = [0, 1, 24, 3]"] ;
36 -> 37 ;
38 [label="gini = 0.684\nsamples = 14\nvalue = [6, 4, 3, 1]"] ;
36 -> 38 ;
39 [label="X[0] <= 597.0\ngini = 0.251\nsamples = 35\nvalue = [1, 0, 30, 4]"] ;
31 -> 39 ;
40 [label="X[3] <= 149.0\ngini = 0.08\nsamples = 24\nvalue = [1, 0, 23, 0]"] ;
39 -> 40 ;
41 [label="gini = 0.0\nsamples = 22\nvalue = [0, 0, 22, 0]"] ;
40 -> 41 ;
42 [label="gini = 0.5\nsamples = 2\nvalue = [1, 0, 1, 0]"] ;
40 -> 42 ;
43 [label="X[7] <= 0.35\ngini = 0.463\nsamples = 11\nvalue = [0, 0, 7, 4]"] ;
39 -> 43 ;
44 [label="gini = 0.0\nsamples = 2\nvalue = [0, 0, 0, 2]"] ;
43 -> 44 ;
45 [label="gini = 0.346\nsamples = 9\nvalue = [0, 0, 7, 2]"] ;
43 -> 45 ;
46 [label="X[1] <= 216.0\ngini = 0.185\nsamples = 70\nvalue = [4, 0, 3, 63]"] ;
30 -> 46 ;
47 [label="X[3] <= 152.5\ngini = 0.162\nsamples = 69\nvalue = [4, 0, 2, 63]"] ;
46 -> 47 ;
48 [label="X[2] <= 134.5\ngini = 0.138\nsamples = 68\nvalue = [4, 0, 1, 63]"] ;
47 -> 48 ;
49 [label="gini = 0.071\nsamples = 55\nvalue = [1, 0, 1, 53]"] ;
48 -> 49 ;
50 [label="gini = 0.355\nsamples = 13\nvalue = [3, 0, 0, 10]"] ;
48 -> 50 ;
51 [label="gini = 0.0\nsamples = 1\nvalue = [0, 0, 1, 0]"] ;
47 -> 51 ;
52 [label="gini = 0.0\nsamples = 1\nvalue = [0, 0, 1, 0]"] ;
46 -> 52 ;
}